digraph Tree {
node [shape=box, style="rounded", color="black", fontname="helvetica"] ;
edge [fontname="helvetica"] ;
0 [label="number_of_deaths <= -1.1\nsquared_error = 0.3\nsamples = 13\nvalue = -0.5"] ;
1 [label="number_of_deaths <= -1.3\nsquared_error = 0.0\nsamples = 3\nvalue = -1.2"] ;
0 -> 1 [labeldistance=2.5, labelangle=45, headlabel="True"] ;
2 [label="number_of_deaths <= -1.4\nsquared_error = 0.0\nsamples = 2\nvalue = -1.2"] ;
1 -> 2 ;
3 [label="squared_error = 0.0\nsamples = 1\nvalue = -1.2"] ;
2 -> 3 ;
4 [label="squared_error = -0.0\nsamples = 1\nvalue = -1.2"] ;
2 -> 4 ;
5 [label="squared_error = 0.0\nsamples = 1\nvalue = -1.0"] ;
1 -> 5 ;
6 [label="people_affected_per_100k <= 0.5\nsquared_error = 0.1\nsamples = 10\nvalue = -0.2"] ;
0 -> 6 [labeldistance=2.5, labelangle=-45, headlabel="False"] ;
7 [label="temperature_change_temp_change_celsius <= -0.2\nsquared_error = 0.0\nsamples = 5\nvalue = -0.6"] ;
6 -> 7 ;
8 [label="squared_error = 0.0\nsamples = 1\nvalue = -1.0"] ;
7 -> 8 ;
9 [label="squared_error = 0.0\nsamples = 4\nvalue = -0.5"] ;
7 -> 9 ;
10 [label="population_population_total <= 0.8\nsquared_error = 0.1\nsamples = 5\nvalue = -0.0"] ;
6 -> 10 ;
11 [label="squared_error = 0.0\nsamples = 4\nvalue = -0.1"] ;
10 -> 11 ;
12 [label="squared_error = -0.0\nsamples = 1\nvalue = 0.8"] ;
10 -> 12 ;
}